Perceptron
0.07121967098305193 0.2618653597848311 B 0
0.6076670840306533 0.6425597611247689 B 0
-0.22018024662241342 -0.7114007919660066 R 1
-0.3750766672950183 -0.8359819220491556 R 1
0.11810917464674175 0.28343898551549457 B 0
-0.5414673717046539 -0.08961138245573635 B 0
0.5863487781665531 0.6345264564279913 B 0
-0.9095657818165894 -0.9544689435542345 R 1
-0.06154428366774001 0.39847704836522724 B 0
0.8811875315299948 0.892364633109253 B 0
0.35317178635670055 -0.6891507388985512 R 1
0.7814764589947902 0.9609375664888713 B 0
-0.700256347262165 -0.16115536010999076 B 0
0.840168329387702 0.8792681041137931 B 0
-0.0698157061387703 -0.2934174812501188 R 1
-0.8388728343385847 -0.9435710050767434 R 1
-0.19351664619069853 0.197581024453511 B 0
-0.5031764353320887 -0.5788839044583864 R 1
0.7462059330468704 -0.8799205340398124 R 1
-0.4715910822857128 -0.7238958559765101 R 1
-0.7572461407169311 -0.8521306109374238 R 1
-0.702064873125871 -0.788240395828687 R 1
-0.16272000044069967 -0.792104446877944 R 1
0.006521995022832572 0.7472518786511796 B 0
-0.2860710792686634 0.819733354673785 B 0
0.7846594350834379 -0.5967115984632051 R 1
-0.550884597599123 -0.8630917587744253 R 1
0.8662806563796688 -0.4822732085281587 R 1
0.691705336742442 -0.6971541291863741 R 1
-0.79628669026766 0.30477013342585413 B 0
-0.6176969987666823 -0.8731663755535561 R 1
-0.45114104855908055 -0.755642746096254 R 1
0.18937205753226083 0.3972119036602556 B 0
-0.0739977752776555 -0.18380624131617174 R 1
0.5359951568009738 0.8801349954338313 B 0
-0.15572939622058768 -0.2209025928155529 R 1
-0.37361753112324747 0.8413321279824919 B 0
0.12093724312550536 0.23222229591258509 B 0
0.8672430294873821 0.9699397367654184 B 0
0.4274275443014799 0.9531220454320427 B 0
